digraph Tree {
node [shape=box, style="filled, rounded", color="black", fontname="helvetica"] ;
edge [fontname="helvetica"] ;
0 [label=<eleg_variation &le; 0.53<br/>gini = 0.5<br/>samples = 277<br/>value = [227, 222]<br/>class = human>, fillcolor="#fefcfb"] ;
1 [label=<subject_line &le; 0.5<br/>gini = 0.105<br/>samples = 123<br/>value = [186, 11]<br/>class = human>, fillcolor="#e78845"] ;
0 -> 1 [labeldistance=2.5, labelangle=45, headlabel="True"] ;
7 [label=<gini = 0.107<br/>samples = 121<br/>value = [182, 11]<br/>class = human>, fillcolor="#e78945"] ;
1 -> 7 ;
8 [label=<gini = 0.0<br/>samples = 2<br/>value = [4, 0]<br/>class = human>, fillcolor="#e58139"] ;
1 -> 8 ;
2 [label=<list &le; 0.006<br/>gini = 0.272<br/>samples = 154<br/>value = [41, 211]<br/>class = AI>, fillcolor="#5fb0ea"] ;
0 -> 2 [labeldistance=2.5, labelangle=-45, headlabel="False"] ;
3 [label=<neg_parallelism &le; 0.1<br/>gini = 0.218<br/>samples = 148<br/>value = [30, 211]<br/>class = AI>, fillcolor="#55abe9"] ;
2 -> 3 ;
5 [label=<gini = 0.354<br/>samples = 73<br/>value = [28, 94]<br/>class = AI>, fillcolor="#74baed"] ;
3 -> 5 ;
6 [label=<gini = 0.033<br/>samples = 75<br/>value = [2, 117]<br/>class = AI>, fillcolor="#3c9fe5"] ;
3 -> 6 ;
4 [label=<gini = 0.0<br/>samples = 6<br/>value = [11, 0]<br/>class = human>, fillcolor="#e58139"] ;
2 -> 4 ;
}